digraph Tree {
node [shape=box, fontname="helvetica"] ;
edge [fontname="helvetica"] ;
0 [label="redTeamXp <= 29815.5\ngini = 0.5\nsamples = 19700\nvalue = [9976, 9724]\nclass = Red Wins"] ;
1 [label="blueTeamXp <= 29220.5\ngini = 0.441\nsamples = 10626\nvalue = [3494.0, 7132.0]\nclass = Blue Wins"] ;
0 -> 1 [labeldistance=2.5, labelangle=45, headlabel="True"] ;
2 [label="blueTeamDragonAdvantage <= -0.5\ngini = 0.495\nsamples = 3451\nvalue = [1895, 1556]\nclass = Red Wins"] ;
1 -> 2 ;
3 [label="blueTeamXp <= 27583.0\ngini = 0.445\nsamples = 1514\nvalue = [1009.0, 505.0]\nclass = Red Wins"] ;
2 -> 3 ;
4 [label="blueTeamTowersDestroyed <= 0.5\ngini = 0.316\nsamples = 489\nvalue = [393, 96]\nclass = Red Wins"] ;
3 -> 4 ;
5 [label="gini = 0.255\nsamples = 353\nvalue = [300.0, 53.0]\nclass = Red Wins"] ;
4 -> 5 ;
6 [label="gini = 0.432\nsamples = 136\nvalue = [93, 43]\nclass = Red Wins"] ;
4 -> 6 ;
7 [label="redTeamXp <= 28158.0\ngini = 0.48\nsamples = 1025\nvalue = [616, 409]\nclass = Red Wins"] ;
3 -> 7 ;
8 [label="gini = 0.49\nsamples = 253\nvalue = [109, 144]\nclass = Blue Wins"] ;
7 -> 8 ;
9 [label="gini = 0.451\nsamples = 772\nvalue = [507, 265]\nclass = Red Wins"] ;
7 -> 9 ;
10 [label="blueTeamXp <= 28011.0\ngini = 0.496\nsamples = 1937\nvalue = [886, 1051]\nclass = Blue Wins"] ;
2 -> 10 ;
11 [label="blueTeamXp <= 26724.0\ngini = 0.485\nsamples = 712\nvalue = [417, 295]\nclass = Red Wins"] ;
10 -> 11 ;
12 [label="gini = 0.386\nsamples = 172\nvalue = [127, 45]\nclass = Red Wins"] ;
11 -> 12 ;
13 [label="gini = 0.497\nsamples = 540\nvalue = [290.0, 250.0]\nclass = Red Wins"] ;
11 -> 13 ;
14 [label="redTeamXp <= 27588.0\ngini = 0.473\nsamples = 1225\nvalue = [469, 756]\nclass = Blue Wins"] ;
10 -> 14 ;
15 [label="gini = 0.327\nsamples = 282\nvalue = [58, 224]\nclass = Blue Wins"] ;
14 -> 15 ;
16 [label="gini = 0.492\nsamples = 943\nvalue = [411, 532]\nclass = Blue Wins"] ;
14 -> 16 ;
17 [label="blueTeamDragonAdvantage <= -0.5\ngini = 0.346\nsamples = 7175\nvalue = [1599, 5576]\nclass = Blue Wins"] ;
1 -> 17 ;
18 [label="blueTeamXp <= 31917.5\ngini = 0.471\nsamples = 1910\nvalue = [725, 1185]\nclass = Blue Wins"] ;
17 -> 18 ;
19 [label="redTeamXp <= 28249.5\ngini = 0.488\nsamples = 1616\nvalue = [683, 933]\nclass = Blue Wins"] ;
18 -> 19 ;
20 [label="gini = 0.411\nsamples = 544\nvalue = [157, 387]\nclass = Blue Wins"] ;
19 -> 20 ;
21 [label="gini = 0.5\nsamples = 1072\nvalue = [526.0, 546.0]\nclass = Blue Wins"] ;
19 -> 21 ;
22 [label="redTeamXp <= 29162.5\ngini = 0.245\nsamples = 294\nvalue = [42, 252]\nclass = Blue Wins"] ;
18 -> 22 ;
23 [label="gini = 0.169\nsamples = 225\nvalue = [21, 204]\nclass = Blue Wins"] ;
22 -> 23 ;
24 [label="gini = 0.423\nsamples = 69\nvalue = [21, 48]\nclass = Blue Wins"] ;
22 -> 24 ;
25 [label="blueTeamXp <= 30670.5\ngini = 0.277\nsamples = 5265\nvalue = [874.0, 4391.0]\nclass = Blue Wins"] ;
17 -> 25 ;
26 [label="redTeamXp <= 28879.5\ngini = 0.376\nsamples = 2207\nvalue = [553, 1654]\nclass = Blue Wins"] ;
25 -> 26 ;
27 [label="gini = 0.311\nsamples = 1467\nvalue = [283, 1184]\nclass = Blue Wins"] ;
26 -> 27 ;
28 [label="gini = 0.463\nsamples = 740\nvalue = [270.0, 470.0]\nclass = Blue Wins"] ;
26 -> 28 ;
29 [label="redTeamXp <= 28341.0\ngini = 0.188\nsamples = 3058\nvalue = [321, 2737]\nclass = Blue Wins"] ;
25 -> 29 ;
30 [label="gini = 0.104\nsamples = 1755\nvalue = [97, 1658]\nclass = Blue Wins"] ;
29 -> 30 ;
31 [label="gini = 0.285\nsamples = 1303\nvalue = [224, 1079]\nclass = Blue Wins"] ;
29 -> 31 ;
32 [label="blueTeamXp <= 29687.5\ngini = 0.408\nsamples = 9074\nvalue = [6482, 2592]\nclass = Red Wins"] ;
0 -> 32 [labeldistance=2.5, labelangle=-45, headlabel="False"] ;
33 [label="blueTeamXp <= 28105.5\ngini = 0.302\nsamples = 5934\nvalue = [4833, 1101]\nclass = Red Wins"] ;
32 -> 33 ;
34 [label="redTeamXp <= 31202.5\ngini = 0.179\nsamples = 2692\nvalue = [2424, 268]\nclass = Red Wins"] ;
33 -> 34 ;
35 [label="blueTeamDragonAdvantage <= -0.5\ngini = 0.258\nsamples = 1225\nvalue = [1039, 186]\nclass = Red Wins"] ;
34 -> 35 ;
36 [label="gini = 0.184\nsamples = 701\nvalue = [629, 72]\nclass = Red Wins"] ;
35 -> 36 ;
37 [label="gini = 0.34\nsamples = 524\nvalue = [410, 114]\nclass = Red Wins"] ;
35 -> 37 ;
38 [label="blueTeamXp <= 27076.5\ngini = 0.106\nsamples = 1467\nvalue = [1385, 82]\nclass = Red Wins"] ;
34 -> 38 ;
39 [label="gini = 0.051\nsamples = 725\nvalue = [706, 19]\nclass = Red Wins"] ;
38 -> 39 ;
40 [label="gini = 0.155\nsamples = 742\nvalue = [679.0, 63.0]\nclass = Red Wins"] ;
38 -> 40 ;
41 [label="redTeamXp <= 31654.5\ngini = 0.382\nsamples = 3242\nvalue = [2409.0, 833.0]\nclass = Red Wins"] ;
33 -> 41 ;
42 [label="blueTeamDragonAdvantage <= -0.5\ngini = 0.427\nsamples = 2274\nvalue = [1572, 702]\nclass = Red Wins"] ;
41 -> 42 ;
43 [label="gini = 0.36\nsamples = 1137\nvalue = [869, 268]\nclass = Red Wins"] ;
42 -> 43 ;
44 [label="gini = 0.472\nsamples = 1137\nvalue = [703.0, 434.0]\nclass = Red Wins"] ;
42 -> 44 ;
45 [label="blueTeamDragonAdvantage <= 0.5\ngini = 0.234\nsamples = 968\nvalue = [837, 131]\nclass = Red Wins"] ;
41 -> 45 ;
46 [label="gini = 0.188\nsamples = 809\nvalue = [724, 85]\nclass = Red Wins"] ;
45 -> 46 ;
47 [label="gini = 0.411\nsamples = 159\nvalue = [113.0, 46.0]\nclass = Red Wins"] ;
45 -> 47 ;
48 [label="blueTeamDragonAdvantage <= -0.5\ngini = 0.499\nsamples = 3140\nvalue = [1649.0, 1491.0]\nclass = Red Wins"] ;
32 -> 48 ;
49 [label="blueTeamXp <= 31164.5\ngini = 0.462\nsamples = 1348\nvalue = [861, 487]\nclass = Red Wins"] ;
48 -> 49 ;
50 [label="blueTeamTurretPlatesDestroyed <= 2.5\ngini = 0.43\nsamples = 1006\nvalue = [691, 315]\nclass = Red Wins"] ;
49 -> 50 ;
51 [label="gini = 0.351\nsamples = 401\nvalue = [310, 91]\nclass = Red Wins"] ;
50 -> 51 ;
52 [label="gini = 0.466\nsamples = 605\nvalue = [381, 224]\nclass = Red Wins"] ;
50 -> 52 ;
53 [label="redTeamXp <= 31445.0\ngini = 0.5\nsamples = 342\nvalue = [170, 172]\nclass = Blue Wins"] ;
49 -> 53 ;
54 [label="gini = 0.488\nsamples = 254\nvalue = [107, 147]\nclass = Blue Wins"] ;
53 -> 54 ;
55 [label="gini = 0.407\nsamples = 88\nvalue = [63.0, 25.0]\nclass = Red Wins"] ;
53 -> 55 ;
56 [label="redTeamXp <= 31186.5\ngini = 0.493\nsamples = 1792\nvalue = [788.0, 1004.0]\nclass = Blue Wins"] ;
48 -> 56 ;
57 [label="blueTeamXp <= 30695.5\ngini = 0.469\nsamples = 1244\nvalue = [467.0, 777.0]\nclass = Blue Wins"] ;
56 -> 57 ;
58 [label="gini = 0.499\nsamples = 571\nvalue = [275.0, 296.0]\nclass = Blue Wins"] ;
57 -> 58 ;
59 [label="gini = 0.408\nsamples = 673\nvalue = [192, 481]\nclass = Blue Wins"] ;
57 -> 59 ;
60 [label="blueTeamTowersDestroyed <= 0.5\ngini = 0.485\nsamples = 548\nvalue = [321, 227]\nclass = Red Wins"] ;
56 -> 60 ;
61 [label="gini = 0.437\nsamples = 328\nvalue = [222.0, 106.0]\nclass = Red Wins"] ;
60 -> 61 ;
62 [label="gini = 0.495\nsamples = 220\nvalue = [99.0, 121.0]\nclass = Blue Wins"] ;
60 -> 62 ;
}