digraph Tree {
node [shape=box, fontname="helvetica"] ;
edge [fontname="helvetica"] ;
0 [label="x[11] <= 27457.5\ngini = 0.5\nsamples = 19700\nvalue = [9982.0, 9718.0]"] ;
1 [label="x[24] <= 27097.0\ngini = 0.409\nsamples = 9245\nvalue = [6593, 2652]"] ;
0 -> 1 [labeldistance=2.5, labelangle=45, headlabel="True"] ;
2 [label="x[24] <= 25617.0\ngini = 0.5\nsamples = 3030\nvalue = [1489, 1541]"] ;
1 -> 2 ;
3 [label="gini = 0.463\nsamples = 1267\nvalue = [462, 805]"] ;
2 -> 3 ;
4 [label="gini = 0.486\nsamples = 1763\nvalue = [1027, 736]"] ;
2 -> 4 ;
5 [label="x[24] <= 28672.5\ngini = 0.294\nsamples = 6215\nvalue = [5104, 1111]"] ;
1 -> 5 ;
6 [label="gini = 0.411\nsamples = 2138\nvalue = [1519, 619]"] ;
5 -> 6 ;
7 [label="gini = 0.212\nsamples = 4077\nvalue = [3585, 492]"] ;
5 -> 7 ;
8 [label="x[24] <= 27738.5\ngini = 0.438\nsamples = 10455\nvalue = [3389.0, 7066.0]"] ;
0 -> 8 [labeldistance=2.5, labelangle=-45, headlabel="False"] ;
9 [label="x[24] <= 25872.5\ngini = 0.309\nsamples = 6283\nvalue = [1198, 5085]"] ;
8 -> 9 ;
10 [label="gini = 0.2\nsamples = 3290\nvalue = [370, 2920]"] ;
9 -> 10 ;
11 [label="gini = 0.4\nsamples = 2993\nvalue = [828.0, 2165.0]"] ;
9 -> 11 ;
12 [label="x[11] <= 29498.5\ngini = 0.499\nsamples = 4172\nvalue = [2191, 1981]"] ;
8 -> 12 ;
13 [label="gini = 0.469\nsamples = 2431\nvalue = [1518, 913]"] ;
12 -> 13 ;
14 [label="gini = 0.474\nsamples = 1741\nvalue = [673, 1068]"] ;
12 -> 14 ;
}